digraph Tree {
node [shape=box, style="filled, rounded", color="black", fontname="helvetica"] ;
edge [fontname="helvetica"] ;
0 [label="sepal length (cm) <= 5.45\ngini = 0.67\nsamples = 99\nvalue = [49, 51, 50]\nclass = versicolor", fillcolor="#fdfffe"] ;
1 [label="petal length (cm) <= 2.45\ngini = 0.32\nsamples = 35\nvalue = [46, 9, 2]\nclass = setosa", fillcolor="#eb9e66"] ;
0 -> 1 [labeldistance=2.5, labelangle=45, headlabel="True"] ;
2 [label="gini = 0.0\nsamples = 29\nvalue = [46, 0, 0]\nclass = setosa", fillcolor="#e58139"] ;
1 -> 2 ;
3 [label="sepal length (cm) <= 4.95\ngini = 0.3\nsamples = 6\nvalue = [0, 9, 2]\nclass = versicolor", fillcolor="#65eb9d"] ;
1 -> 3 ;
4 [label="petal length (cm) <= 3.9\ngini = 0.5\nsamples = 2\nvalue = [0, 2, 2]\nclass = versicolor", fillcolor="#ffffff"] ;
3 -> 4 ;
5 [label="gini = 0.0\nsamples = 1\nvalue = [0, 2, 0]\nclass = versicolor", fillcolor="#39e581"] ;
4 -> 5 ;
6 [label="gini = 0.0\nsamples = 1\nvalue = [0, 0, 2]\nclass = virginica", fillcolor="#8139e5"] ;
4 -> 6 ;
7 [label="gini = 0.0\nsamples = 4\nvalue = [0, 7, 0]\nclass = versicolor", fillcolor="#39e581"] ;
3 -> 7 ;
8 [label="petal width (cm) <= 1.75\ngini = 0.53\nsamples = 64\nvalue = [3, 42, 48]\nclass = virginica", fillcolor="#f0e8fc"] ;
0 -> 8 [labeldistance=2.5, labelangle=-45, headlabel="False"] ;
9 [label="petal width (cm) <= 0.65\ngini = 0.28\nsamples = 34\nvalue = [3, 42, 5]\nclass = versicolor", fillcolor="#5cea97"] ;
8 -> 9 ;
10 [label="gini = 0.0\nsamples = 3\nvalue = [3, 0, 0]\nclass = setosa", fillcolor="#e58139"] ;
9 -> 10 ;
11 [label="petal width (cm) <= 1.45\ngini = 0.19\nsamples = 31\nvalue = [0, 42, 5]\nclass = versicolor", fillcolor="#51e890"] ;
9 -> 11 ;
12 [label="gini = 0.0\nsamples = 20\nvalue = [0, 32, 0]\nclass = versicolor", fillcolor="#39e581"] ;
11 -> 12 ;
13 [label="sepal length (cm) <= 7.05\ngini = 0.44\nsamples = 11\nvalue = [0, 10, 5]\nclass = versicolor", fillcolor="#9cf2c0"] ;
11 -> 13 ;
14 [label="petal length (cm) <= 4.95\ngini = 0.28\nsamples = 10\nvalue = [0, 10, 2]\nclass = versicolor", fillcolor="#61ea9a"] ;
13 -> 14 ;
15 [label="gini = 0.0\nsamples = 6\nvalue = [0, 8, 0]\nclass = versicolor", fillcolor="#39e581"] ;
14 -> 15 ;
16 [label="sepal length (cm) <= 6.5\ngini = 0.5\nsamples = 4\nvalue = [0, 2, 2]\nclass = versicolor", fillcolor="#ffffff"] ;
14 -> 16 ;
17 [label="sepal width (cm) <= 2.45\ngini = 0.44\nsamples = 3\nvalue = [0, 1, 2]\nclass = virginica", fillcolor="#c09cf2"] ;
16 -> 17 ;
18 [label="gini = 0.0\nsamples = 1\nvalue = [0, 0, 1]\nclass = virginica", fillcolor="#8139e5"] ;
17 -> 18 ;
19 [label="sepal width (cm) <= 2.75\ngini = 0.5\nsamples = 2\nvalue = [0, 1, 1]\nclass = versicolor", fillcolor="#ffffff"] ;
17 -> 19 ;
20 [label="gini = 0.0\nsamples = 1\nvalue = [0, 1, 0]\nclass = versicolor", fillcolor="#39e581"] ;
19 -> 20 ;
21 [label="gini = 0.0\nsamples = 1\nvalue = [0, 0, 1]\nclass = virginica", fillcolor="#8139e5"] ;
19 -> 21 ;
22 [label="gini = 0.0\nsamples = 1\nvalue = [0, 1, 0]\nclass = versicolor", fillcolor="#39e581"] ;
16 -> 22 ;
23 [label="gini = 0.0\nsamples = 1\nvalue = [0, 0, 3]\nclass = virginica", fillcolor="#8139e5"] ;
13 -> 23 ;
24 [label="gini = 0.0\nsamples = 30\nvalue = [0, 0, 43]\nclass = virginica", fillcolor="#8139e5"] ;
8 -> 24 ;
}